{
  "layer_sizes": [
    784,
    128,
    128,
    10
  ],
  "weights": [
    [
      [
        0.037705183258187364,
        0.05303243757576162,
        -0.06658432053669995,
        -0.06798633745930871,
        -0.004966640113573756,
        0.038105676043804326,
        0.0500902462499469,
        0.06357690727591883,
        0.020248677548404884,
        0.05719056028081254,
        0.025808586238270786,
        -0.03646969664733033,
        -0.0018891907101680067,
        0.06655589199810139,
        0.048088749096063116,
        -0.07945439760831081,
        -0.06469912838427198,
        -0.017876429921917264,
        -0.042229589387228025,
        0.06496696397303292,
        0.03527067202137152,
        -0.0029846865737433587,
        -0.04785293988595948,
        0.007466484710102375,
        0.0473947221933759,
        0.06653259208459897,
        -0.01589845506050533,
        0.049967771428493124,
        0.05288725720670545,
        -0.07011383704612673,
        -0.007403476593694433,
        0.03804436213773753,
        0.0024380846009175727,
        -0.03713860108982825,
        0.07358160530207314,
        0.05603126719914864,
        -0.023640019682972108,
        -0.0555898365708242,
        0.0676522879441413,
        0.0806496069024813,
        0.039214903996934364,
        0.04359524208091263,
        -0.004654903922010817,
        0.0313549800377194,
        -0.0733150068485656,
        -0.05870186134688583,
        0.013908638303326532,
        0.001126249206934271,
        -0.010870393233132908,
        -0.020932623817740706,
        0.03422227986750517,
        -0.026539460933099265,
        0.03713900033960889,
        0.033947297731861587,
        -0.043608249863137216,
        -0.06049283698459852,
        0.021609973892704998,
        0.037519990270746525,
        0.017198765627158302,
        -0.006685151314198209,
        -0.010454340726098993,
        0.04693900895264136,
        -0.006204789436992361,
        -0.04142271113464929,
        -0.008824489041952752,
        0.018246347201270455,
        0.031367494828264036,
        0.027652780246621517,
        0.07201427082504624,
        0.04770713161565304,
        -0.05828656889253545,
        0.03233334490409273,
        -0.009282417939818793,
        0.07854509850155261,
        0.033385702302961895,
        -0.06757497883048849,
        -0.014840075410438067,
        -0.018678692723488807,
        -0.06221887473781963,
        0.05459602350052345,
        0.04805126891797029,
        -0.07641166470639467,
        -0.05121036779253181,
        -0.0025321332296058263,
        0.06874804577031426,
        0.06692456535317853,
        -0.031815851260738603,
        -0.05832550411651455,
        -0.0688778313595676,
        0.07691725870251212,
        -0.046523962923078005,
        0.025882709943092094,
        0.0706629948567847,
        0.05359520874148532,
        0.060279148058287824,
        -0.007679408719915126,
        -0.023482212961202703,
        -0.011526947533768261,
        -0.07357491313739432,
        -0.0046710092574134,
        -0.013403060153068774,
        -0.061248725575951166,
        0.04108521295291842,
        -0.04199065153752419,
        -0.013848122519971473,
        -0.0631808595803337,
        -0.034199341580091545,
        -0.0410808777506362,
        -0.008642762507085705,
        0.00900437502150686,
        0.05741157775777933,
        -0.0305407662436206,
        0.07657034013097758,
        -0.014927329519485541,
        0.0704944328411185,
        0.06357008476530371,
        0.053459719093807034,
        0.03670329096621078,
        0.012645970385896321,
        0.009344474762526048,
        0.020467216281834413,
        -0.05091023079512837,
        -0.05697587523776349,
        0.001657388580232927,
        0.0649995294496695,
        -0.017151722306476783,
        -0.027424287527359537,
        -0.01759766215021573,
        0.02262013213275728,
        -0.06880441036464799,
        -0.03908348702162492,
        0.05768030447062045,
        0.015055764576233407,
        -0.05197243347855292,
        0.004861046163622193,
        -0.0671689690600374,
        0.05962727203402876,
        0.018480522933669766,
        0.015392499649703198,
        -0.07837485927578901,
        -0.0032485526722617897,
        -0.04226697880947611,
        -0.04134817639795232,
        0.04802150104363992,
        0.004940110607275602,
        -0.06300315109472862,
        -0.019017271389372405,
        0.04983138799372944,
        0.051717484932678526,
        0.016840769505588493,
        0.01226278409963917,
        -0.01736317243461076,
        -0.04413193914969089,
        -0.03772363320080251,
        0.05762575194467667,
        -0.022802566241547764,
        0.035312542944662545,
        0.07675182531395722,
        -0.057137323074843815,
        0.07830790181975619,
        0.06710893079865918,
        -0.03961341944634482,
        0.001572471165191519,
        -0.0435259058232294,
        -0.08097173747653409,
        -0.044630149585385116,
        0.032367968773064984,
        0.07747823607048726,
        0.06169155619689551,
        -0.02701679436356553,
        0.05594449880025196,
        0.02593897113318208,
        0.0010046963175171508,
        -0.009393180962306624,
        -0.02226787369082816,
        -0.054071864429269284,
        -0.05741675126988853,
        -0.02438912711559748,
        -0.07555245756173559,
        0.003144794053585004,
        -0.013855504257026335,
        -0.07536260262995544,
        0.0654429047977497,
        -0.054949125582586536,
        -0.0013604599170537607,
        -0.016669048895819577,
        0.04437536379280865,
        0.00329988986211506,
        -0.02845395348714049,
        -0.01845236140663878,
        0.0036933220691922203,
        0.018965312426354727,
        0.02904165754537351,
        -0.041658183166547666,
        0.08036478014147672,
        0.06179968272696168,
        0.04933525495525054,
        0.05291234710702669,
        0.061831884263543,
        0.04285889232339567,
        0.0458893795192942,
        0.021058354397648832,
        -0.04423214082498325,
        0.07964598909303583,
        -0.03243443783752653,
        0.036475290056802334,
        -0.018192653501003866,
        -0.01839813072445469,
        -0.0276040276924304,
        0.05456626571019613,
        -0.05431734525563186,
        -0.03671274421288084,
        0.010118192218392955,
        -0.036208525035270306,
        -0.03383322260432026,
        -0.05543900883404601,
        0.0396987548949211,
        -0.0023747280959284106,
        0.021892068018180624,
        0.041422696154382085,
        -0.02385468893778144,
        -0.03265999586520284,
        -0.07740422897773928,
        0.05481665526762847,
        -0.04497571250649704,
        -0.03491863163434982,
        -0.0034817365630277486,
        0.006930447171229218,
        -0.07356706408776126,
        -0.033230791099445364,
        0.07078563749636826,
        0.006610345987260333,
        0.033893124332499455,
        -0.006735033512049238,
        0.0024704943128436435,
        -0.025019224632310093,
        -0.06593999646890228,
        -0.06797169521025119,
        -0.008205305620949982,
        0.04075094491305628,
        0.06806267326323145,
        0.008445946974323701,
        -0.07826595921302938,
        -0.012766492580916097,
        0.04853326658986759,
        -0.03530369474950677,
        -0.028272504428284023,
        -0.048366722482807274,
        -0.05191600591826658,
        0.031006884670706114,
        -0.06096553493987753,
        -0.02997927709520084,
        -0.06442118451933321,
        0.03303615919527536,
        -0.027836943975664892,
        -0.010339799050035015,
        -0.07546302986742306,
        -0.04416730474294315,
        -0.04933315556966803,
        -0.010779412485301024,
        -0.06886846762431544,
        0.019350866182308968,
        0.05462140086900341,
        0.06653231246968883,
        -0.038698146370681905,
        0.02568112202050854,
        -0.04313520465364417,
        0.02870190244328112,
        -0.037961459525123295,
        -0.07225412691431474,
        -0.05808256590871271,
        0.04465681971111904,
        0.023564217484576405,
        0.000674564425104579,
        0.08010770918366644,
        0.05184110339397721,
        0.02307904794018993,
        0.04798021182124412,
        0.049527688564938055,
        0.04600541353433921,
        0.059530776416598374,
        -0.07113462480072208,
        0.0496365963151309,
        0.06065079111053007,
        0.05266084886512834,
        -0.01637191249647034,
        0.0695952571405545,
        0.0575958592242678,
        -0.06945874678980872,
        -0.0717975332761847,
        -0.022136601388555444,
        -0.040664901566508656,
        -0.05919419028284252,
        0.06873791701016027,
        0.04898779914079912,
        -0.0779382541300114,
        -0.07479317937895144,
        0.06747364123431598,
        -0.03932164003213463,
        -0.03919762479432176,
        -0.042272367035462076,
        -0.0315399379189518,
        0.01423743419452432,
        -0.017179172138319834,
        0.03074799542949483,
        -0.010326567457954697,
        0.03484333891801343,
        0.07994738355428016,
        0.031988676589045514,
        0.03855617859311501,
        -0.016932583816327465,
        -0.004220907799150575,
        0.0033564518828497203,
        -0.06858920954360605,
        -0.045030456568587056,
        -0.02442024259045234,
        -0.07992434224932847,
        -0.05621461162247404,
        0.06449379185900053,
        -0.010120469562612075,
        -0.028371047567731955,
        -0.019673015411449446,
        -0.06775452386981029,
        0.03586149500816406,
        0.05024222258844874,
        -0.0045148486598966114,
        -0.00041028553582672656,
        0.046702911432041805,
        -0.037701688955702604,
        0.012509037772779091,
        0.01254964597796171,
        0.017457971455213078,
        -0.04923840484437129,
        0.0024717910793756043,
        0.018203972150506925,
        -0.0384143181282168,
        0.01832496802195846,
        -0.047153106802624294,
        0.02756097223681224,
        -0.03410812790972778,
        0.06254441931046464,
        0.03423814654025828,
        -0.045817361681566124,
        0.01218295598287096,
        0.03704034958618044,
        -0.008470862776044946,
        0.027510298254089405,
        -0.029605635935689732,
        0.034294526595864405,
        -0.0736618523875963,
        -0.0276825977645579,
        0.01803913004973677,
        0.047924386345969266,
        -5.377883433779762e-05,
        -0.06761083646835526,
        0.01785304732519491,
        0.029456704641898576,
        0.024089666609263538,
        -0.015211612930498664,
        0.021550858697425235,
        -0.05803503687032015,
        -0.027383722536828338,
        -0.0327224183791667,
        -0.014816495530418042,
        -0.0608895290180943,
        0.07431688415332685,
        -0.060508750705631935,
        0.04387398785913911,
        -0.03185806315871484,
        -0.045012188928188396,
        -0.01151712951108981,
        -0.028101063135640793,
        0.06521727368879535,
        0.07558421648731706,
        0.029975308121639108,
        0.04866664451140801,
        0.020601442170187098,
        0.07907116508413348,
        0.06613738731432642,
        0.07817625078047913,
        0.02736159956353089,
        -0.047238571219597826,
        -0.06180147636212588,
        -0.03077705494558576,
        0.02179632163857745,
        0.04734951645644997,
        0.08091707747377846,
        -0.006614398821476741,
        -0.022483030850379913,
        -0.06549572573469095,
        0.013365608841093737,
        -0.0805623177289202,
        -0.00916886397165402,
        -0.05356312387390419,
        0.07828354550338334,
        -0.05122224813112117,
        0.00930454024292482,
        -0.06332863367933422,
        -0.07801908543112464,
        -0.03473114697703929,
        -0.05420986829706287,
        -0.06744880354723326,
        -0.02989236227819647,
        -0.06387731133897673,
        -0.022774267182886984,
        0.02042914400424245,
        -0.039868841281880125,
        -0.013735732552977317,
        -0.05946213679523088,
        0.043658093096642966,
        -0.041689951797868725,
        -0.06508891839822273,
        0.04410866093380525,
        0.07167246984712972,
        -0.02790324455890251,
        0.0716603247934468,
        -0.03468371789252978,
        -0.02426455811158175,
        0.027840752699895208,
        -0.06965641927651188,
        0.0382108503768816,
        0.05926178661683004,
        0.002082876498534114,
        0.06809041020201595,
        0.07108390665781295,
        0.0700343566263345,
        0.05572339621201319,
        -0.017043541758777522,
        0.004253529429199071,
        0.07792456135408118,
        0.037048746188471426,
        0.0008560523265465081,
        -0.049430194509056474,
        -0.055236650408206994,
        0.05333895355572399,
        -0.06213474911426449,
        -0.025882559961573334,
        0.04562948811050441,
        0.04742710596600935,
        0.06917386605642786,
        -0.05672446334389285,
        0.003641125172588161,
        -0.04164816728169889,
        0.06597857663151072,
        0.03346528352579119,
        0.04182849272562854,
        -0.06357410856702587,
        -0.018460027479011,
        -0.07040544606701114,
        -0.01683976962468578,
        -0.0607107875403272,
        0.01635772714454943,
        0.0056751801283053405,
        0.024436126393112406,
        -0.021968255174250696,
        -0.042112942586136196,
        -0.05446218878560306,
        -0.08041731551376641,
        -0.047703856421397864,
        -0.02531106938738331,
        0.002667842876711138,
        -0.0787136907399531,
        -0.006852953206310422,
        -0.03362828845915168,
        0.02041777383354819,
        -0.07212339113998946,
        0.07194848957210467,
        -0.047864731284109764,
        0.04696042542579659,
        -0.03998876129012826,
        -0.048585326665005195,
        -0.0590308412771374,
        0.023112263696716165,
        -0.006032532271997348,
        -0.04977977919249268,
        0.009650864455942793,
        -0.07109830504444355,
        -0.03525467255774575,
        -0.033410213696896306,
        0.03688058398928684,
        0.059791255814010624,
        0.023590858865296993,
        0.07359916646284248,
        -0.06699751307958454,
        0.010597162521014572,
        -0.038845499683164426,
        0.03649642809369115,
        -0.07930483272000499,
        0.06671428483093733,
        -0.057237763915564496,
        0.019887490115129372,
        -0.02467179883874599,
        -0.04596485184518191,
        0.015024355889427979,
        -0.040539608406477544,
        -0.05434871181356327,
        0.012906862599398092,
        -0.08043964319057967,
        0.029179045786726726,
        0.01802913963822103,
        0.017770949901350322,
        -0.011260969844061802,
        -0.058738944053933234,
        0.030062003100650894,
        -0.022988856493974162,
        0.07683511025768705,
        0.039582951137580244,
        0.03694915469522461,
        -0.03405105839735203,
        0.06771691807590077,
        -0.06543929689436684,
        -0.06120443115507736,
        -0.026577188061558447,
        0.06649650312137229,
        -0.03889938864639188,
        0.011424627859014158,
        -0.06591225763550473,
        0.07420651288811869,
        0.0625663709859039,
        0.0460878618799801,
        -0.043606259727948,
        -0.07100110752919399,
        0.025702043212877196,
        -0.05336684056986981,
        -0.03804824744645396,
        -0.023429766146342894,
        0.016667989058088306,
        -0.02478463436095949,
        0.0548283296436764,
        0.07343853864130756,
        0.036496721995460835,
        0.06566391009523401,
        -0.023635542034801803,
        0.035436027883564744,
        -0.04648426071821157,
        0.012823649427646744,
        -0.013437490692464568,
        0.05601357718407332,
        0.025850579556434092,
        0.018344635357003813,
        -0.017076778567156503,
        0.030587127417268795,
        -0.041323202267198,
        -0.05478024373461952,
        -0.07891512676904919,
        0.07671601610567297,
        -0.05831359563087582,
        -0.0476491043452482,
        -0.07747221947240655,
        -0.032141500627539295,
        0.05398319626775816,
        0.07463621524797903,
        -0.020270237694755507,
        0.03919431800410228,
        0.034364601693262414,
        -0.0148922511532312,
        -0.006110799971330821,
        -0.07129093412830909,
        -0.003150600963441358,
        -0.02943013702200182,
        -0.002426224542230168,
        -0.07090874772354232,
        0.0036211511570936328,
        -0.05026088493860305,
        -0.027061310170432736,
        -0.02197735744055475,
        -0.009224565336167875,
        -0.07526104944963635,
        -0.01539365143754623,
        -0.0330962079052485,
        0.05733621802764022,
        -0.0003490245028714839,
        0.07441150315149314,
        -0.01361322026129197,
        -0.012878861343368533,
        0.05394657779896039,
        0.04799925464445093,
        0.033132008250767564,
        0.03234531617219236,
        -0.07138573075841859,
        -0.014305579663997384,
        -0.06929367427245761,
        0.034242579709383325,
        -0.06494434316530287,
        -0.05688052538061959,
        -0.04044220703171709,
        -0.037218143641406284,
        0.04953192315582916,
        -0.04850136689064286,
        0.023482149904384506,
        -0.06918456347004504,
        0.0012733799291349407,
        -0.013898244850079677,
        0.08059096448990502,
        0.05818818419460048,
        -0.06866840830896696,
        -0.06330046025043533,
        -0.027528813251123878,
        -0.01405540234074773,
        -0.03083837377112361,
        0.03949996178687762,
        0.05328925082615532,
        -0.005941368794474017,
        -0.019519642073640965,
        0.041755657331969814,
        0.06782048492453477,
        0.016965974268818892,
        -0.01524971613653979,
        0.0792548833828467,
        -0.009259515021344977,
        0.03964523361847193,
        0.004507277179627053,
        -0.014575035860597038,
        -0.029132592744958684,
        -0.05228658389407391,
        -0.056372088402968416,
        0.058898378952252,
        0.046181333109578865,
        -0.014134206511015962,
        0.0696599175942339,
        -0.03243516998924025,
        0.045521528973103326,
        0.0777311758488797,
        -0.05237011308246531,
        0.06892976204388129,
        0.07095997831773046,
        -0.0395987872928997,
        0.022004543510575097,
        -0.0491229467746993,
        0.06679099441484518,
        -0.07585617518919446,
        -0.054247039907300426,
        -0.05625101438420592,
        0.003255969396715741,
        -0.020758477279174056,
        -0.013761696534749082,
        -0.008324456716007594,
        -0.06576572077758353,
        0.04705200191510414,
        0.0018084671809608932,
        0.014212848260987038,
        0.07209887103829057,
        -0.0028830503718645095,
        -0.06567090934809015,
        -0.07050874842501076,
        -0.06551893218423226,
        -0.05288319729404395,
        0.055025393021225194,
        0.007973245052426067,
        -0.04904610703339622,
        -0.010255811730038242,
        0.03493883942297442,
        -0.023356147768022077,
        0.05488194261544088,
        0.0769813803345589,
        0.0080919712323054,
        -0.06435260275371511,
        0.019644047107331364,
        0.00911052790300039,
        0.08040630211329577,
        0.030470659022639762,
        0.0019532398469294526,
        -0.023206055607160415,
        0.034116726656502575,
        0.0532850190852385,
        0.055924882530835746,
        -0.011919430732339975,
        0.04994044539001205,
        0.07376730853493119,
        0.009695362950937675,
        -0.006305548946661507,
        -0.02161979012288471,
        -0.029047221669720284,
        0.039108031560418574,
        -0.04954238539382386,
        0.03660132124227697,
        0.00020759599180991684,
        0.00630884434770132,
        0.05903018032044202,
        -0.030466495585767445,
        0.056429050724520674,
        0.06991727024116881,
        -0.04311062021801727,
        -0.07275294069722049,
        0.008489468993456886,
        0.04852013041586711,
        -0.03610982085495691,
        0.03672770604078772,
        -0.07314121086061298,
        -0.0744462065902105,
        -0.040235593265604226,
        0.01709516925582598,
        0.07020510043358133,
        0.05754080763692068,
        -0.05475549009110157,
        0.00038712413346023156,
        0.04219435906304245,
        0.030972008227102762,
        -0.07663411436135124,
        -0.02433237038881885,
        -0.016993306795932847,
        -0.03995966473897963,
        -0.057230868099138396,
        0.04739980828610757,
        0.05294803939637921,
        -0.002473419480139516,
        -0.05369116248084639,
        0.010832066811941779,
        -0.013624769597651201,
        0.05996072549510631,
        0.023832126050345168,
        0.0710407755171375,
        -0.061345625043963514,
        0.030853642048503674,
        -0.07383946523818763,
        0.04702991682668442,
        0.03785018699986062,
        0.03387339783928425,
        -0.057914191638562165,
        0.05933539218880668,
        0.04759239033254414,
        -0.0013716624762764168,
        -0.04961560972570607,
        -0.05166954922798078,
        -0.07131211173895098,
        -0.06630719388408986,
        -0.01743800623634635,
        -0.02857798762057502,
        0.06921885821865972,
        -0.012949413992414616,
        -0.053982352085674645,
        0.03253193792092794,
        -0.07592947463221274,
        -0.012278835061502846,
        -0.023905926048060577,
        0.011015527093310981,
        0.01666894760621615,
        0.07718849243148879,
        0.06411814750114334,
        -0.02539139811560235,
        -0.03896630434123251,
        -0.038037818153441316,
        -0.03888622716322428,
        0.01788981107126672,
        -0.06626984998352546,
        0.011565243981147028,
        0.0036621809709098813,
        0.015087083579652175,
        -0.04874167397044742,
        0.04092603825230447,
        0.06684313060832858,
        0.0019242584611065677,
        -0.002500719844120744,
        -0.02879043962249818,
        0.02592897804323037,
        -0.078086925589008,
        -0.004977747051215425,
        -0.02268176090629319,
        0.008590240976936031,
        0.059324821416954415,
        -0.057392091714730364,
        0.030317482459362236,
        0.049695175438594696,
        0.03602933378494233,
        -0.04908121701392669,
        0.07321459394326946,
        0.03863035123572735,
        0.07934024639416343,
        -0.07920071732957142,
        -0.03288000517872255,
        0.004031581843421339,
        -0.06344454548699224,
        0.057177344009480824,
        0.0640576410277543,
        -0.041498624540011464,
        0.0707227432480722,
        -0.027101579361349444,
        -0.028929993987510116,
        0.0783894745440046,
        0.0764729162542642,
        -0.07515877252292587,
        -0.05614214119041586,
        0.07189561470923955,
        -0.06731393597823061
      ],
      [
        0.05206022291736964,
        -0.036992232630919136,
        -0.004178660751731136,
        -0.008433741625602967,
        0.0009679322504013016,
        0.030421387926827165,
        -0.07021530750499289,
        0.006836005022131816,
        0.03823961076844537,
        -0.07765554065764478,
        -0.026006333503279425,
        -0.05193881056662687,
        -0.015590170112491822,
        0.04045497316954755,
        0.07077269308452444,
        -0.059264329150341175,
        -0.023997707296942436,
        0.06831707274813803,
        0.021871524110109522,
        0.05501401882728996,
        -0.016784590764546747,
        -0.05306610470024052,
        0.0746884044126706,
        0.05410793352143908,
        -0.029319302180135974,
        -0.01566279746215936,
        -0.02973994279997185,
        -0.07074731154603825,
        -0.07876049880002033,
        -0.02810892951282621,
        -0.015305556683349847,
        -0.0033298443729557065,
        0.059107173715587075,
        0.0748674836828997,
        0.006037999983026926,
        0.011671777837976613,
        0.03598984306907381,
        0.00573770414130606,
        -0.02890738870099642,
        0.01334116709739104,
        -0.07484563781290175,
        -0.027335784625153035,
        0.03245284830376245,
        -0.01779585687616314,
        -0.012608602628162477,
        0.017868218949874212,
        -0.014530099342167521,
        0.006800671646153694,
        0.04059885975144585,
        -0.04915961467936919,
        -0.06220906874131213,
        -0.08022673764438291,
        0.010810369571714218,
        0.07635598996879722,
        0.05460809444363404,
        -0.007781180705625307,
        -0.05933342259731432,
        0.07491215893320163,
        -0.07799073726010389,
        -0.06714208157388876,
        -0.04879559744379578,
        -0.0470910033896676,
        -0.011641204440780095,
        0.07545032417512115,
        -0.06719407732033437,
        -0.0064127398495117255,
        -0.07665014651956893,
        -0.0390737459497375,
        -0.0731951942216794,
        0.010671370668735608,
        -0.07813048637543718,
        -0.0561481408492148,
        0.03713111038183346,
        -0.04975095123444566,
        0.022090457441514513,
        0.08097159547646976,
        0.07550017661271638,
        -0.02398490933291704,
        -0.015105570911358474,
        -0.0010598641899695338,
        -0.0011924793819022006,
        -0.06069133269822185,
        -0.05514812771189738,
        0.05231082216433855,
        -0.03847854911105072,
        0.03761462133316035,
        0.015795847945575786,
        -0.0036514642903255207,
        -0.006587129530809102,
        -0.029244496608223,
        0.06399619325969527,
        0.022424619517935618,
        -0.01458558007597728,
        0.048073502456875555,
        0.03078859074552985,
        -0.015296833654291242,
        -0.007828685741217561,
        0.057668681897254354,
        0.03878692823594179,
        -0.034081045691893436,
        0.05611626896233693,
        -0.033071649744574445,
        -0.010459773846284298,
        0.07554706308152201,
        -0.035790959089303784,
        -0.03465113114987765,
        -0.0025738240341222907,
        -0.07286750434910766,
        -0.0557580519290448,
        -0.015935030418874577,
        -0.04243679491427523,
        0.0007734239809788213,
        0.05399300536748272,
        -0.030633379210687012,
        -0.061269755183033923,
        -0.07584555619015318,
        -0.007032221862261212,
        -0.06837723745640768,
        -0.05266801081147846,
        0.01163858715001069,
        0.004201739958172121,
        0.07858739964069666,
        -0.007862652685068056,
        0.05761175556781817,
        0.026388737999367667,
        0.0645457747091,
        0.02642581937602087,
        -0.07188565024426101,
        0.06863863135951709,
        -0.006567096834770567,
        0.0663784912605192,
        0.06516085069831776,
        -0.008227055221071547,
        -0.022765100228726062,
        -0.026038133779295022,
        0.010451102685248292,
        -0.0024802807072836497,
        0.030764161896132736,
        -0.06153498873980859,
        -0.05309318790342979,
        -0.016998974380015547,
        -0.01894736323320334,
        -0.05092675347100687,
        -0.05312994090704088,
        0.06560122786810849,
        -0.03229805157028407,
        -0.03942865360613201,
        -0.0483562729718235,
        -0.02122547527201142,
        -0.05788053579167565,
        0.056613666651528644,
        -0.06441140069543537,
        0.04686350165631137,
        0.020922985567264366,
        -0.07826245571746539,
        0.06205032467445504,
        -0.06857310175718792,
        0.026065782866869544,
        0.012729068575808716,
        -0.05853321500636714,
        0.07634357108987475,
        -0.020747741446435243,
        0.04556413144297278,
        0.028804356341639983,
        -0.015034189221877506,
        0.04088288529266222,
        -0.06596907920136219,
        0.016931734076996677,
        0.056106197789149936,
        0.05650422450843376,
        0.07298737797129204,
        -0.06365124794594959,
        0.0387127303622022,
        0.046424759089747025,
        -0.026637880743137082,
        0.034452710951147145,
        -0.07938345898654815,
        0.041591919362761964,
        -0.05388119621773983,
        -0.0560669405695977,
        -0.0671513841448897,
        0.018414928542613798,
        -0.05467347787604263,
        -0.07797071990458286,
        0.003510016972643734,
        0.04173633544543942,
        -0.04500777093459635,
        -0.0471582882270019,
        -0.04462442769160519,
        -0.045267672489582515,
        -0.03585881231094192,
        -0.06429717206722167,
        0.0008912162529493978,
        0.045315205156146454,
        0.0038409841449917603,
        -0.04638497185419377,
        0.03553068863945301,
        0.005585242739109833,
        -0.028771593931983197,
        0.07099944933158295,
        0.014522472572773129,
        -0.04527742965936073,
        0.07724038753677592,
        0.035172596272846135,
        -0.05839171472826961,
        0.06761277382277103,
        -0.04484982319724365,
        -0.060511793975505435,
        -0.02760348546038608,
        -0.06420196177903928,
        -0.05120533927759608,
        0.058326773268335214,
        -0.07252376230879785,
        -0.022124431256011767,
        -0.06061826966653606,
        -0.03294215024132505,
        0.061402265101096976,
        -0.030081581472297857,
        -0.00508842494545203,
        -0.025944077385890087,
        -0.02107442313393222,
        0.004300403320579849,
        -0.04124558794951084,
        -0.022655485897764165,
        0.03816445351864156,
        0.01064017495648327,
        -0.03939845767293896,
        -0.055375853642904496,
        -0.02567406831055348,
        0.05975386961580886,
        0.05980730454729419,
        -0.0038556038480932753,
        0.05226941402666285,
        0.019704630027509287,
        0.03367294503474505,
        -0.055005689538275226,
        0.04721394179352284,
        -0.04133620032009886,
        0.055348282721585707,
        0.011474015664649853,
        0.04437844065311761,
        -0.05600369675372603,
        0.03236411570424684,
        0.07875555872366075,
        0.04615798069974589,
        0.011257399367412824,
        0.013163136100126482,
        -0.05024047409876768,
        0.051844450946367554,
        0.026831920126863765,
        0.023321044151139267,
        -0.06061359513943865,
        -0.06956403023033836,
        -0.0001236157133408522,
        -0.044367981246886616,
        0.0682350534200595,
        0.0666854736652101,
        -0.0363271538552099,
        0.010649726967469159,
        -0.012928310728040612,
        -0.06816561872914859,
        -0.062017674891551106,
        0.023654971785880358,
        -0.05213627017878571,
        0.06637564041887925,
        -0.04372853720129462,
        0.04683282343086409,
        -0.04580410582750772,
        -0.04468433899038352,
        -0.05499535777839401,
        -0.018738489473861517,
        -0.03654531133670882,
        0.07286715101565144,
        -0.07375620378842702,
        0.07865393898825132,
        -0.08072186984995468,
        -0.00032855261531805624,
        -0.022677340309462703,
        0.0071476331970955626,
        0.033791550962225,
        0.0005052465770305076,
        0.0012515047536140605,
        0.048837451905664436,
        -0.08076492191697718,
        -0.0715741994263994,
        -0.03689121156217764,
        -0.018535914770091394,
        -0.05472281171341786,
        0.04122903267586844,
        -0.01285103340914312,
        0.07449759909073658,
        0.013287858266834207,
        -0.004634444898532458,
        0.02564409560017973,
        -0.07999331817415826,
        0.0792952823750307,
        0.07498422078777711,
        0.052776002018795926,
        0.03697213712805271,
        -0.007348072444879825,
        0.07630778574472838,
        -0.012540128576228715,
        0.01185797017658266,
        -0.020730208361878354,
        0.048331543775536834,
        -0.0207596430424785,
        -0.013385749179726777,
        0.024406799500466286,
        -0.015932829243811897,
        0.016814628884794708,
        0.07443371870762144,
        -0.06591355605004617,
        -0.0745796590829341,
        0.00034571515614523207,
        0.019464022241810333,
        0.01895854068413573,
        -0.06804683019545686,
        -0.029228675816843255,
        -0.04700110936594196,
        0.0295865628335263,
        0.05912701955346303,
        -0.05284713764811032,
        -0.03095488232877284,
        0.07249963582664973,
        -0.019807441857719973,
        0.07538296874675085,
        -0.058185298723669926,
        -0.01330848679335217,
        -0.01371178697155491,
        0.057025248145114005,
        0.014459220088042915,
        0.060547841361745486,
        0.06026707703916748,
        0.07894249907534645,
        0.07801630206923163,
        0.051941949222666345,
        0.0337962246144978,
        0.036577730963860966,
        -0.027974937949326317,
        -0.06070591429650098,
        -0.030496756816602355,
        -0.017871276203670697,
        0.04549620932036619,
        -0.016460969789320518,
        0.05207973280935835,
        0.027223837954738303,
        0.04807834943110753,
        0.03041725775870463,
        0.01914670031688835,
        0.0447507509131044,
        -0.06885122866724709,
        0.025107018818298715,
        0.03153043567637004,
        0.04004525545573295,
        -0.03811954747901959,
        0.03429890057858395,
        -0.05367297441772325,
        -0.044446645418061884,
        0.032700302403518997,
        -0.054413869129888354,
        -0.039115902771948395,
        0.05585082307391673,
        -0.011361529409763593,
        0.06042929410065337,
        -0.041934107323776296,
        -0.053356253817508414,
        0.02993130051281355,
        -0.026020795734818573,
        0.008442537675023565,
        -0.022341199814816165,
        -0.035277282428711365,
        0.07487374029599134,
        -0.05183883545201848,
        -0.051241123024017385,
        0.06926564546951669,
        -0.06969563137585279,
        -0.05207310098714364,
        0.0033685792685597404,
        0.05889654905285285,
        0.08051635284877942,
        0.0452127839812044,
        0.024166861216857488,
        0.07604628758894402,
        0.047334688723935814,
        0.033933877459711326,
        0.007809053919202627,
        -0.04520019450669988,
        -0.022672511365500164,
        0.059602111216980086,
        0.05371444028165945,
        -0.07181016384381836,
        -0.06385530320640688,
        -0.011221255836002003,
        0.05232817004630244,
        0.002439929405677374,
        0.0610116719922186,
        -0.028840342917520183,
        0.02670900024262826,
        0.05062799676687402,
        -0.07763890598434535,
        -0.019905974908924248,
        0.060312008073508366,
        0.05291227706449336,
        -0.017432863954518013,
        0.03287474550077141,
        -0.05761217997442013,
        -0.037117967168091924,
        0.06136297874213184,
        -0.059342615135024285,
        -0.04931561529492068,
        0.06928956274760698,
        0.044435198755361976,
        -0.06378990981566876,
        0.017193880754899818,
        -0.010818180080791565,
        -0.015749980352222456,
        -0.04134224350127613,
        -0.07986780491106427,
        0.07668452135778431,
        -0.05422012264805315,
        0.030850344228308374,
        -0.05735798355014454,
        0.00973728125339371,
        -0.05343656918262077,
        0.06983910379169281,
        0.06357600557305493,
        -0.05596387920427499,
        -0.031179033979628124,
        0.005437191630393828,
        -0.06981713000381846,
        0.05034923977763703,
        0.050534990107716116,
        -0.03789678030084691,
        -0.018915880156273573,
        -0.07599873779519924,
        -0.0799418293417091,
        -0.030869376042466055,
        0.02113234626459659,
        0.020802471037169465,
        -0.030667283166130238,
        -0.074488149080055,
        -0.0230816753530573,
        0.04232419615685691,
        0.06863606899544827,
        -0.053114071162271154,
        -0.05925225647867144,
        0.06759597014239183,
        -0.07723735585237879,
        0.02177913516530723,
        0.04477788775187988,
        -0.005512256078705896,
        0.03691703091354229,
        0.00285771346720963,
        -0.06360638170228106,
        -0.002180424411655002,
        0.04505051021960091,
        0.037489562949911556,
        0.0015284119834289706,
        0.03162704185919081,
        -0.05753788679171651,
        0.07567483266210212,
        0.047387650534742115,
        -0.04756037233890459,
        0.023378734746716534,
        0.07839438261000661,
        0.05409643310722467,
        -0.01667739557604564,
        -0.05216649007292008,
        -0.04879222088897997,
        -0.0384276465977124,
        -0.07200501489206348,
        -0.05720212610368111,
        -0.07712398431953435,
        -0.06016329134676246,
        -0.07241355687530236,
        -0.05026126521704374,
        0.08076380612963382,
        -0.021642207387899473,
        0.05366859266054405,
        0.03623619457174633,
        -0.0007938676218740698,
        0.021139813747500763,
        0.039790311273782006,
        -0.06824042278397156,
        0.04478908522608899,
        0.052880547165683384,
        0.006534852675486466,
        0.05953743118050975,
        -0.06448449952628896,
        0.014746219415239306,
        0.02591678751918454,
        0.016454983748869723,
        0.029922090944300636,
        -0.01024756242829128,
        -0.025938478552553088,
        0.01788172524772376,
        0.060744320135209307,
        -0.05733004558690109,
        -0.05071245646389477,
        0.07079984629740138,
        -0.06784935999570149,
        0.061546051114742206,
        0.026266803545956258,
        -0.013330247590543048,
        -0.01118335471391406,
        -0.046234816465502995,
        0.004324949443727452,
        -0.04684635713064431,
        0.07029648787879392,
        0.05235287091416066,
        0.01350321196012827,
        -0.08051244931583458,
        -0.0422067484333051,
        -0.06800551154082793,
        -1.9787232642426433e-05,
        0.00134414055741168,
        -0.014575201600735638,
        0.03976434172452077,
        -0.07921712837163523,
        -0.028293775456612887,
        0.08104409475776145,
        -0.0055450881527903395,
        -0.08009223739044585,
        -0.005328735310858784,
        -0.0601867151136482,
        0.05079757888204728,
        0.05536368534481856,
        0.038893481905668326,
        0.06661295709704088,
        0.026544102415800616,
        -0.005737398352793618,
        0.0561387015959747,
        0.012198351442580482,
        -0.027396504375233992,
        -0.041358339337694394,
        0.044031070167379865,
        -0.025804829356266885,
        -0.05439329427399911,
        -0.033258270171410996,
        -0.01636410605591153,
        0.013022786221234484,
        -0.07483659433772902,
        0.0517740626469011,
        -0.023180952665203897,
        0.021078912506801842,
        -0.0377486557934588,
        -0.0008072754683805389,
        -0.061181137141377046,
        -0.06172952666211172,
        -0.021240193872624526,
        0.036235336892225425,
        -0.04393758637478625,
        -0.01833932135380842,
        0.002227068263450871,
        -0.015493885347307668,
        0.046742857497638374,
        0.045976964131373976,
        -0.06401750794159251,
        -0.0059633249325184295,
        0.014606739873422328,
        -0.035749899521912494,
        0.041400921762417664,
        0.014919703729712769,
        0.06893697257928888,
        -0.03586858823189084,
        -0.0347113305672658,
        0.025376905661049623,
        -0.05257999469643442,
        -0.03355452451385564,
        0.0425285465391375,
        0.03906564373710368,
        0.013552893771983154,
        -0.07104027851165678,
        0.05694733926765502,
        -0.012760347776282419,
        -0.027632681724363353,
        0.038935673853477334,
        0.08063015474223528,
        -0.04890666630923416,
        0.07271941068461155,
        -0.05811067875965911,
        -0.02987240197816654,
        -0.05429124058376161,
        0.003545493158341781,
        -0.012391420820336757,
        -0.05422946052853831,
        -0.052594472141756554,
        -0.0622578473207567,
        0.024918282769824926,
        0.06909608406028941,
        -0.04839016089939218,
        -0.008641617612674804,
        0.04840098979355009,
        0.008825420666050507,
        0.044868797432509155,
        -0.0011043795708499116,
        -0.04981060854482281,
        0.040378131129713835,
        -0.011977099556330181,
        0.01952512221990682,
        -0.07194846209264308,
        0.028861102481008788,
        -0.022487778937283473,
        -0.017690790039817356,
        -0.01961046311394992,
        -0.07394707654312978,
        -0.060412908518703595,
        0.03444984878545704,
        0.013328935554823465,
        0.027809244945663697,
        -0.07833373278844098,
        0.06714791994045566,
        0.014945144980651762,
        -0.019166911137393584,
        -0.04069313284722687,
        0.05877787545497515,
        0.06132957112916382,
        0.009333917013464532,
        -0.017678340170535503,
        -0.034985861886530426,
        0.06834577433057923,
        0.05740335954309603,
        0.07997658757455597,
        0.01123012090266505,
        0.06334723278256496,
        -0.026682308295439557,
        0.014361992477072733,
        -0.0009952009037178106,
        0.037380607370566546,
        0.012835519843051577,
        -0.031761516677736794,
        -0.06153501405137521,
        0.05489200433674757,
        0.013660891492005875,
        0.07472828786697885,
        -0.08062020695534726,
        -0.04132029595688248,
        -0.05903199565382784,
        0.04217371110478928,
        -0.043120675023224884,
        -0.0721097388269688,
        0.05144366209511769,
        0.07494544227500408,
        0.06707131876213226,
        -0.029442570402121573,
        0.04994322050373609,
        0.07419099266431955,
        -0.012754903078883217,
        -0.0033288941617394263,
        -0.06252819560836588,
        -0.03405487227798166,
        -0.02268197762724492,
        -0.06192933770086521,
        0.0384205245844136,
        0.0772898357275432,
        -0.003118770849915825,
        0.03186023873506298,
        0.0020808115951816836,
        0.04073041999074911,
        -0.05068996085274961,
        -0.05748121172245162,
        0.02392362653222814,
        0.023600467112885257,
        -0.04464623452351789,
        0.03559094753397382,
        0.022816636783461824,
        0.04849351046645545,
        0.029708721567102858,
        -0.07964582453602853,
        -0.0675860116308443,
        0.04423698100485943,
        0.04348110809516434,
        -0.0730662225746059,
        -0.056883402527020385,
        -0.05209685875866431,
        0.01026275993148093,
        0.01943504332865137,
        -0.040881252768331135,
        0.03272027755398464,
        0.07836086515079185,
        -0.044657555813733096,
        0.07883720603778244,
        -0.07404746335962145,
        -0.04079333086594316,
        -0.04363919330788787,
        -0.017772975380521874,
        -0.06629543728973067,
        0.01956407680358406,
        0.0629269880398847,
        0.024864336434543013,
        -0.04757258331627412,
        0.007980406018543024,
        0.061035335318845085,
        -0.027643899417636508,
        0.06253226734992656,
        -0.06030570605487706,
        0.05638537447090966,
        -0.015853569669470033,
        0.0273746599506709,
        -0.02894305407437947,
        -0.05599932727900571,
        -0.008034007091135303,
        0.03869383453704324,
        0.07978956111099447,
        -0.060685175201687064,
        0.03609989361422292,
        -0.013132922943235509,
        0.06586146428310286,
        0.05612620276549521,
        0.04520502587411507,
        0.041314645854049245,
        -0.03309814838334754,
        0.024215470977764775,
        -0.045032505941920396,
        0.010362504583721135,
        0.009458343636200503,
        -0.04798268300250678,
        -0.06402605480646302,
        -0.07524467326530332,
        0.035324506354811755,
        -0.006789900556807074,
        0.03999471128016001,
        0.04997495416787376,
        -0.05621527697904683,
        0.0776088909086459,
        -0.015945000111358965,
        -0.04827773405438962,
        -0.08063169644171567,
        0.012856782653702978,
        -0.008025807171906069,
        0.03619090977524975,
        -0.07142024083776684,
        -0.03019602139317943,
        0.049324947079788795,
        -0.0456082661698141,
        0.029802049222704255,
        0.053835446349740884,
        -0.06483128521271417,
        -0.04009818749999549,
        0.007485899970717913,
        -0.043437487816988155,
        0.02006986065554521,
        0.05880508862595907,
        -0.01040393698029718,
        0.025418321357479096,
        0.03933598634506867,
        0.04166197948036861,
        0.07057204929770686,
        -0.07453775398603252,
        0.07730232641365067,
        0.01831650161037658,
        -0.02006266679556784,
        -0.002985204745093256,
        -0.05683905530377619,
        -0.06514508998568125,
        0.06399981545975392,
        -0.04395975044939601,
        -0.00952532337843573,
        0.01683352668766136,
        -0.02064139392795704,
        0.028696778718493632,
        0.027534495041312806,
        0.031243505954275996,
        -0.059732397229977446,
        0.006220958705130286,
        0.008209613336855714,
        0.0783674795750513,
        -0.06910638296837336,
        -0.040788375986954846,
        0.04596275842721628,
        -0.07352322206372155,
        0.031139229509536098,
        -0.001414565079573507,
        -0.04089545293514717,
        0.029940609421243325,
        0.018984130193229906,
        0.07388010503993026,
        -0.04298579506445341,
        0.033137602323573295,
        0.03998764294191735,
        0.05369487577784615,
        -0.03470968991169083,
        0.014048496642139752,
        0.003821313594000189
      ],
      [
        0.008633842128218147,
        0.04650359430232762,
        -0.02917541528893068,
        -0.056124129841053194,
        -0.043005545476780836,
        0.056541991857233215,
        -0.0019787834597024406,
        -0.055714371293096664,
        0.02691354337346316,
        -0.04878726100819152,
        0.018876295700587672,
        0.033861131906120306,
        0.02074709196921949,
        -0.07987130441231771,
        -0.04102016935838121,
        0.07212119650333496,
        -0.018534574619525457,
        0.07796783892010564,
        -0.01959528459136084,
        0.050891430941759436,
        -0.07879945806312719,
        0.02652795893963257,
        -0.036089936986335336,
        0.005027297878201234,
        0.06609769990924286,
        -0.04292909200255391,
        -0.06154782602519862,
        -0.07537308199587545,
        -0.032496242599232825,
        -0.04928243903707915,
        0.019994831520509154,
        0.04171098020141188,
        -0.0020310556823214115,
        -0.02684838526727472,
        -0.06362481596790541,
        -0.06410252601896839,
        -0.0009331194695480077,
        0.03009840681976328,
        -0.03847975980028399,
        -0.07264620300792636,
        0.07005828782760529,
        0.062314417167387726,
        -0.05890346633009962,
        0.08010834153045751,
        -0.004295510782937995,
        -0.0564451106219955,
        -0.04524009368706071,
        0.05104125845412133,
        0.0018181143920490694,
        -0.062093317633832995,
        0.05083526921498646,
        0.016594476527831595,
        0.02438925753860731,
        -0.04490278047650205,
        0.04839096330644935,
        -0.030076467806268888,
        0.05623399736904436,
        -0.057482075385265965,
        0.0709070285217829,
        -0.06713352070052228,
        0.03957021476999355,
        0.04436271761198485,
        0.015219913901252047,
        -0.04395165384464332,
        -0.059400092302600585,
        -0.06992675424147551,
        0.0065691899440909335,
        0.07029270698929055,
        0.042169629698106476,
        -0.012943692460761436,
        -0.026673369106550285,
        -0.03352272255023185,
        0.07337830426506542,
        0.04815423367831512,
        0.03408821790560375,
        0.04259376296591122,
        0.03442481155259976,
        -0.04949946900556464,
        -0.07056737741169021,
        -0.048660965160330756,
        -0.06353107709092191,
        0.026945498281271144,
        0.005309475557094864,
        0.05538416293711182,
        0.005269019586052998,
        0.008384789078703617,
        -0.06915226408241436,
        -0.02842933037913127,
        0.00039355597205377457,
        -0.07377180403614171,
        -0.013598386040634527,
        -0.027554874711320863,
        -0.06592055393573817,
        0.04662386887536854,
        0.024687519083029047,
        -0.05205062309279995,
        -0.016330879735197174,
        -0.0734353311395754,
        0.0033834491699930858,
        0.007508165040125636,
        -0.06537308011738242,
        -0.07126000671594866,
        -0.06285600793181004,
        -0.0672036597218026,
        -0.038293888237262534,
        -0.010271604422251293,
        0.0230768643136489,
        -0.03894789120656263,
        0.055255415026823185,
        -0.03164311407135154,
        -0.07477040508622369,
        -0.07231185558327086,
        0.03149074960040363,
        0.026397941054900287,
        0.020229282289068826,
        0.06663584813387222,
        -0.0800055017509082,
        -0.06358256037823373,
        -0.03768052467741936,
        0.02535726084070565,
        -0.05584241466743666,
        0.06825479453573716,
        0.040117103299157394,
        -0.0524117479481518,
        0.02524514898847352,
        -0.003994386784964762,
        -0.04945442844492971,
        0.01909217324192082,
        0.042170782909625476,
        0.019038897951558345,
        -0.06329015870729532,
        0.044112449597667774,
        0.06937238793115316,
        0.03751000277326441,
        0.06469187594420536,
        0.02480810947723798,
        0.06400757457059744,
        0.04018070448306925,
        -0.07633006653178484,
        -0.013275083130364213,
        -0.014988589045995898,
        -0.07098167015938783,
        0.056080888444447974,
        -0.05339351936244478,
        0.04018324691612109,
        0.06419878514223276,
        -0.07210449056847716,
        -0.07649801105743029,
        -0.02723319364903419,
        -0.02424239780097536,
        -0.046488806645974434,
        -0.003263554655724893,
        0.024521707444731533,
        -0.07309863047027407,
        0.07229193348823529,
        0.0017937278935669793,
        0.0266367697952567,
        -0.03279560763321447,
        -0.03217315639486685,
        -0.08054617585147719,
        -0.0379535679061523,
        0.04236238310014996,
        -0.06659522530117568,
        -0.05911509732564256,
        0.05076303453643785,
        -0.012031492395058019,
        0.032205381257096266,
        0.027287056517291436,
        0.06421997122169881,
        0.04086244168997778,
        -0.00016115458269706784,
        -0.06102630085406463,
        -0.06906547701123608,
        0.011214208350504865,
        -0.055250530082349494,
        -0.06707546743697658,
        -0.07732493500470462,
        0.04329124022333314,
        -0.04624052695358618,
        -0.07837604334613132,
        0.01083458688850518,
        0.05273531286838154,
        -0.06162478113967676,
        -0.061546410824309075,
        0.06008735637583901,
        0.00912057225739138,
        -0.07198800529319262,
        -0.03155207294619564,
        0.05881455606405786,
        0.023755347880341768,
        -0.036775917725460704,
        0.053618796068189645,
        0.03079284139113829,
        -0.01359544095139166,
        0.05581868871070261,
        0.07056109240113512,
        0.05941175260089457,
        -0.04961857219171845,
        -0.050959716018036005,
        0.07245071264292371,
        -0.032396730340326856,
        -0.029793668159733472,
        0.04229307175900063,
        -0.011723767891587994,
        -0.0316015721219696,
        0.0297095714118977,
        -0.005720920626232889,
        0.0013039062436610294,
        0.06637351201478389,
        -0.03548547447603443,
        0.07053832189189677,
        0.04702299267244689,
        -0.0021685843066971827,
        -0.07294742212851968,
        0.017009040911639878,
        0.0021778660785559956,
        -0.010027750066657126,
        -0.06073295828082598,
        -0.04251980373804356,
        -0.005247252553468668,
        -0.027721522182797713,
        -0.07612690129971049,
        -0.0015361843150484972,
        -0.07975376864592361,
        0.015584025981657007,
        0.006997346665552573,
        -0.0729606256875967,
        -0.030609697504368774,
        -0.040834065338102056,
        0.06438025564145514,
        0.035128869036461036,
        0.009814520332142487,
        0.04028901580395773,
        -0.038430942774094666,
        0.03175081413947388,
        0.0578631725441896,
        0.0266974976052404,
        0.012165167655972822,
        -0.03563914565066552,
        0.013079959644544295,
        0.05282658294915099,
        -0.05163923631713921,
        0.03824304896348811,
        0.040011597891330755,
        -0.020266162528342506,
        -0.031513004248686576,
        -0.04975587459428296,
        -0.07020544002302473,
        -0.010597817254354741,
        -0.07060307455019067,
        -0.0464037600807262,
        0.000302982664962162,
        0.034740638135853805,
        -0.000279531801938418,
        -0.051982141033416265,
        -0.007391756983277806,
        -0.016260790267544373,
        -0.055393738885216884,
        0.020245295930526735,
        -0.047828635339417704,
        0.027282707391031974,
        0.017482436503692092,
        0.002739202935873486,
        -0.05021558184678698,
        -0.04402067723564068,
        -0.025017778290100483,
        -0.01652209923543424,
        0.032939577926646535,
        0.0453717525503273,
        -0.02602285900006309,
        -0.023575389640022953,
        -0.017580342197964782,
        0.022382950947138283,
        -0.07415638611490492,
        -0.05317117441552779,
        -0.07804530804775808,
        -0.0724115805374537,
        0.06856695729574072,
        -0.04183622853999505,
        0.009536396805461492,
        0.06631654957931876,
        0.01316031356231126,
        0.020642226845084002,
        0.07900819821525998,
        -0.048730964745464005,
        -0.005459565702271324,
        -0.04958019599510159,
        0.009602772384212269,
        0.0665770333032725,
        0.04073536174838678,
        0.054430274442737764,
        -0.017252420924121534,
        0.001061124533416155,
        -0.022010938845340756,
        0.06892804828097113,
        -0.07246075676299686,
        -0.022263994625629162,
        -0.0527369509057387,
        -0.0522695446903981,
        0.07221030659002764,
        0.06745749863376518,
        -0.024918293100874823,
        -0.0207668213797284,
        -0.05068713470625838,
        -0.03342673401481242,
        0.036218038689573254,
        -0.07399879463607231,
        0.031646111318834685,
        -0.03921385758685572,
        0.037258935725085124,
        -0.04133764117702791,
        0.01167435670320971,
        -0.049349497652230095,
        -0.04489052781372021,
        -0.03987677142164847,
        0.07094541732841875,
        0.05623772335506913,
        -0.02452538080037111,
        0.03166879524044877,
        -0.05019875993211684,
        -0.05255673007641956,
        0.07832533668859182,
        0.017171786018971583,
        0.04307487119945749,
        0.017565240260177153,
        0.07700709513685705,
        0.07017068434875515,
        -0.07438870942989728,
        -0.047312882151969646,
        -0.04973196254189809,
        -0.002521855829115377,
        -0.07037936386722057,
        -0.0736965108558831,
        0.010157055146758964,
        0.019162175941721954,
        -0.03529529668642344,
        -0.013145877550768695,
        -0.001912133530348678,
        -0.07841481849101453,
        -0.032867435151211565,
        0.03241114029576686,
        -0.032268941002425965,
        0.06368577960129065,
        0.06888359030541857,
        -0.039345950565361,
        -0.020093271263494777,
        0.058750893438579754,
        -0.0702027154992179,
        -0.050201686415362295,
        -0.07300764034772916,
        -0.0057144856954535195,
        -0.0641818257057663,
        0.056537138722391994,
        0.0702212332385613,
        -0.0035317536039679853,
        -0.0737057712063243,
        -0.006557697668793994,
        0.026978990539733322,
        -0.012247667026103914,
        0.05557500309261926,
        0.027363973767549954,
        0.009668852332171157,
        -0.04332404349296007,
        -0.07693154959838212,
        -0.0436885284425192,
        -0.052153297184333446,
        0.06858616332805575,
        -0.005885094961183557,
        -0.05208542644728735,
        -0.06466449637218913,
        -0.05715629476991732,
        -0.0037059818528123456,
        0.03052405269365227,
        0.060203055808749684,
        -0.02840726543682135,
        -0.01607637651580328,
        -0.004963188115225559,
        0.0005634926462766837,
        0.05958582761633144,
        0.01033836056389631,
        -0.00015622734355486,
        -0.07593004662680287,
        -0.007298807795645068,
        0.0505783975498755,
        0.06929185813570385,
        -0.012176191809189316,
        0.049638431875932476,
        0.07229761480717253,
        -0.027522314829210318,
        0.05543498534639971,
        -0.04230726323241753,
        -0.0804513306074636,
        -0.07389571143802681,
        -0.07130572249009968,
        0.05445880701281913,
        -0.04530006840342559,
        -0.06344000608341638,
        0.030716397463745562,
        -0.06739064987724641,
        0.07291018325219523,
        0.015614351355886652,
        -0.027567896501269798,
        0.019440073538471825,
        -0.06748747138728942,
        -0.030462781160062846,
        -0.0301325544739822,
        -0.07137706708825708,
        0.05211893750488636,
        -0.04331804644925849,
        0.06035406315328504,
        -0.049422253626697686,
        0.0661904474117419,
        -0.07058553224804398,
        0.0047071117425735165,
        0.020272089041038208,
        0.03931084075943357,
        -0.05157194851143318,
        -0.07391288081632534,
        -0.02229680922160323,
        0.0656967082329741,
        -0.002909234418144599,
        -0.009061136905986117,
        -0.017574794394881174,
        -0.034543238899669294,
        0.06567371230127164,
        0.0543139231260894,
        -0.005816895749540071,
        0.04908784157156321,
        0.025549559607079275,
        -0.028489387753280943,
        -0.05240394328130253,
        -0.03860085588234586,
        -0.017513937029248305,
        0.03356598176856879,
        0.014380011631741338,
        -0.044019973221578884,
        -0.06233877835931313,
        0.03774285469698148,
        -0.06969197502120407,
        0.04462611148847573,
        0.0693727028668665,
        0.029205082280871222,
        -0.05281677511877986,
        -0.07979991073885849,
        0.011981341751392927,
        -0.035014294227696446,
        0.034322204976830306,
        -0.01968500649302988,
        -0.05326776431037805,
        -0.028639046919170803,
        0.039075870178478994,
        -0.01583190963286793,
        -0.030900784131309894,
        -0.009223488812959299,
        0.06356388862295873,
        -0.01843208655435756,
        0.022968709882182747,
        0.016824562476742147,
        0.025785655604965846,
        -0.07821935763618777,
        -0.0006745665872989748,
        0.02582143236588129,
        0.004862878222338551,
        0.018815091188204805,
        -0.019103642246759187,
        -0.01505158573994661,
        -0.02232436225848304,
        -0.013877066068161512,
        0.03922136086357801,
        -0.07201394868046666,
        -0.016884675360508236,
        0.07871558414198371,
        0.07300657582778103,
        0.03928188524333545,
        -0.06021299751875884,
        -0.02228605047113673,
        0.057232509512357976,
        -0.040522215711642835,
        -0.03431786100401382,
        0.02538402158629202,
        -0.053666070692921196,
        0.049778012901799396,
        -0.07061657855785546,
        -0.014634535074559904,
        -0.016281662595742707,
        0.004006673279398118,
        -0.01798890787334735,
        -0.04798245085094815,
        0.012603509022207054,
        0.038668107995160766,
        0.07171659348760265,
        -0.05217179315624114,
        -0.04231051521899977,
        -0.05247791377057616,
        0.0079694548886131,
        -0.047667814751990036,
        0.05452843600754695,
        -0.06556582768856688,
        -0.06351852465184504,
        -0.0251176983557092,
        -0.08002688174739013,
        -0.023598843241578037,
        -0.023161412581617892,
        0.056668164227901885,
        -0.030109609869561516,
        0.0023046336413464485,
        -0.006004491896555303,
        0.027984308180283538,
        0.02705718358715077,
        -0.07916952736049321,
        -0.03961029724565867,
        -0.009067978777765023,
        -0.025684337961939967,
        -0.06933556335867375,
        -0.0077705110973080305,
        0.03600306986264579,
        -0.034901538310672685,
        0.07703012028439893,
        0.07898393851958127,
        -0.03716791673727035,
        0.0706472799229046,
        -0.025376842013875002,
        0.06252741062702585,
        -0.06039720915222671,
        0.07855665818502072,
        -0.03339659527712275,
        -0.019181624187033113,
        -0.0769214091136341,
        -0.04037497220295891,
        0.03699531552854636,
        -0.003673127959586797,
        0.05264276833875664,
        -0.05626260896247619,
        -0.005311527267488958,
        -0.035331090828258985,
        -0.07235888366797524,
        -0.05452729630344413,
        -0.002539255236097604,
        0.05875582546815225,
        0.017864646517877003,
        -0.02564126235083268,
        0.034009124174566766,
        -0.05846498509549877,
        -0.06420480645591084,
        -0.08038938251532492,
        -0.0183745414901907,
        -0.002581243006163289,
        0.05162607712142886,
        -0.053821515547809756,
        0.07588669328910833,
        -0.06015773724624278,
        0.06893169230495885,
        -0.07840506820412718,
        -0.062185294169672535,
        0.07295713755262032,
        0.03344231830342419,
        -0.057234589569352165,
        0.037647331490846966,
        -0.07437012472170211,
        0.05567523221171233,
        -0.02405486983329351,
        0.04557898189626655,
        -0.03989097795351993,
        0.010778320653810264,
        -0.0308558082156137,
        -0.020740903526847106,
        0.08082383284514386,
        -0.06819052339686454,
        0.06925447631896436,
        0.043701572493295884,
        -0.05599436270855789,
        0.07950529557170286,
        -0.054993046288123765,
        -0.04636916039801914,
        -0.06424374668632407,
        0.06697862031985591,
        0.010768198836863044,
        -0.033001743441414814,
        -0.04304979967857237,
        -0.07499245712408034,
        -0.013706115809145145,
        -0.021918507505732057,
        0.03990881625348637,
        0.055018274406871626,
        0.005552814801659728,
        0.03558530619707835,
        -0.024337945139712776,
        0.054143584529097455,
        0.010868977589415046,
        -0.004103820030521857,
        -0.054836071914503966,
        -0.049724751861981345,
        0.03599908513486878,
        0.043966998208817804,
        0.04397767066828942,
        0.05318366483328238,
        0.022313629424239464,
        0.0461478431617586,
        0.039297140750870554,
        -0.08018535427291597,
        0.07981060458917474,
        -0.0029084898726603053,
        0.009464439867528776,
        -0.019011146079181016,
        -0.04455261301983527,
        -0.06610201221324011,
        -0.06852425951017736,
        0.05771524283000154,
        -0.048268216043494364,
        0.025766030215275557,
        -0.028454965879000295,
        0.05706369015453938,
        0.007668292632743656,
        -0.042519685189750155,
        -0.04974498489165109,
        -0.044157336084109204,
        -0.05435435690479927,
        0.05952056097992364,
        0.023434086949240138,
        0.03717387711790528,
        0.06244501867176677,
        0.017917712284429926,
        -0.025326537941187013,
        0.03819335274645644,
        0.06076790218508493,
        -0.06969446974118707,
        -0.0024426874098430196,
        0.008225654302968108,
        0.07405896823943622,
        -0.07025003914951283,
        -0.05969968121846325,
        -0.06179802579246561,
        -0.009105031575933661,
        0.04193121996379982,
        0.03240264002310138,
        0.0723998323129581,
        -0.06425681378500325,
        0.05274307419506116,
        -0.039543195028790765,
        0.07023464149374264,
        0.018807301956305325,
        0.06733528233961456,
        0.003084522413904625,
        -0.003743821145956769,
        0.0756314533678564,
        0.006637070744053633,
        0.01333907526377856,
        -0.07053778988907762,
        -0.04215343045172836,
        0.027932156564210123,
        -0.02927074494004614,
        0.06683491153160057,
        -0.025488262697978117,
        -0.049451818683639015,
        -0.002715385397001141,
        0.034689722684036084,
        0.0560641168971292,
        -0.0805076775692871,
        -0.004318686316532719,
        0.016209941181216173,
        -0.022993389343664843,
        0.05153277551854907,
        0.07082422766995233,
        0.06486377408542987,
        0.03350590066215145,
        0.007931497770895204,
        -0.04204944133771432,
        -0.06964900376337314,
        -0.03260205013122531,
        0.029302199968138223,
        0.003002854592617857,
        -0.0710838507417164,
        -0.05207870931798117,
        -0.06722111415502043,
        -0.06513601371920631,
        -0.017825034310077092,
        -0.03112887474492545,
        -0.0446470107306093,
        0.001701019071646298,
        -0.06604943702102595,
        -0.07303628642213694,
        -0.008739062819872245,
        0.004692109415928666,
        -0.048227888321430414,
        -0.03159829367963044,
        0.0709806494197675,
        0.04633472771127517,
        -0.045695853635224805,
        -0.06174196861819472,
        0.036954911772417665,
        -0.011006546260403927,
        0.042428378006007794,
        0.06640992282280583,
        0.04643301875022865,
        -0.060189867420234106,
        0.020278420273257936,
        -0.04923879344995531,
        0.03593349851853293,
        -0.036880595128854526,
        -0.04310186491535872,
        0.006581033945981335,
        0.0008423476744436054,
        0.043766618045586195,
        0.023926614592979636,
        -0.06853422459303307,
        -0.05685379889087808,
        -0.04732046127946128,
        0.039297012513849094,
        0.07166198843426705,
        0.02682021285325792,
        -0.0005491842079447251,
        -0.037507664350359106,
        -0.027025617633485155,
        0.02241765938833426,
        -0.05835010928781011,
        0.01591834393144105,
        0.005107113485724457,
        -0.06098878146881171,
        -0.06730565658241898,
        -0.005310387252197249,
        0.040607772344275345,
        -0.056858102854323044,
        -0.026997530110597148,
        -0.012369914688712805,
        0.05446530467231181,
        0.07805693871177424,
        0.057568984133352624,
        0.0693192123255855,
        -0.051910143989343197,
        0.03532537707299975,
        -0.058618638362851014,
        -0.04002604259231963,
        0.04399374155225769,
        -0.028805147330796664,
        -0.00276314442598892,
        0.06838384750339652,
        -0.05228740529469194,
        0.010496279296541275,
        0.05715831947666186,
        0.05503318081501585,
        0.07905159568032735,
        0.020738601118245173,
        -0.02246690692819609,
        0.001058006564965186,
        0.028240631677507858,
        -0.06520737152194896,
        -0.013028331328217346,
        -0.03413105105063053,
        -0.043029467945420945,
        -0.04913894586241942,
        0.0074046945005689785,
        0.06314460707723604,
        0.04952596839721313,
        -0.0692359218694654,
        0.04497833929791992,
        -0.03636603003320522,
        -0.007436360721718535,
        0.05234422325893012,
        -0.033130583082644174,
        -0.05646813706907501,
        0.06803116091446948,
        0.0034101936025263263,
        0.04980280115627636,
        -0.060766745643765205,
        0.014040078073759357,
        -0.07009884982817535,
        -0.0013413933856888244,
        0.06351043157073574,
        0.03557901671426204,
        0.012337594189219966,
        0.05999732490565177,
        0.008842616540683537,
        0.03944242629469709,
        0.010882366800913104,
        0.009548158792338932,
        0.02744562232979568,
        -0.04924277357780612,
        0.05842328903223079,
        0.0478654990135674,
        0.021756562472204033,
        0.032643415001597634,
        -0.015426238269176842,
        -0.04214425453888173,
        -0.06859449267969575
      ],
      [
        -0.019365936524789018,
        0.0474032925900815,
        0.04454208742633492,
        -0.0194926225220644,
        0.01767024769654403,
        0.0007020838070710411,
        -0.01956953005221044,
        -0.03714411969343535,
        0.06836147011148416,
        0.031614262344953625,
        0.03014047784681613,
        -0.03293125988777018,
        -0.05750892569340171,
        -0.07554099856032431,
        -0.05530436817254042,
        -0.04909072205932432,
        -0.023415620262601022,
        -0.028766428535130346,
        0.06117521719852498,
        -0.022389922887491066,
        0.0018973529183253096,
        -0.043820751865733046,
        0.02852469219817684,
        -0.01639270958853717,
        -0.06773631636543107,
        -0.07115579341196222,
        -0.07571570708693663,
        0.05680559341862726,
        0.07296411089925503,
        0.012852363351916238,
        -0.018227432684867984,
        -0.07142710800488866,
        0.07088912173105921,
        0.0037266301536094393,
        -0.022809504845004352,
        0.04171167829623172,
        -0.07686047745848529,
        0.02319762332166357,
        -0.05288214342192769,
        0.05398783974729021,
        0.05513668017130677,
        0.008798261512597536,
        0.048694281310697,
        0.006797286566073424,
        0.024966636286611554,
        -0.046243957765528594,
        0.004557014819644656,
        0.06934758151851467,
        0.015280802978310831,
        0.06596745047640845,
        -0.07235206464431554,
        0.033283794282674084,
        0.003925983043885861,
        -0.007853946774174322,
        -0.03558934620513019,
        0.0547971607422211,
        -0.06850909328664906,
        -0.0023227197790424287,
        -0.0352201694442365,
        0.04129749705655805,
        0.04061240395239657,
        -0.014452614845338774,
        -0.042985389823124304,
        -0.070179351443076,
        0.0637271646906436,
        -0.03883319597456452,
        0.07630412251742841,
        -0.0318656735755095,
        -0.011371434556636487,
        -0.06937711648813914,
        -0.011749015475152863,
        0.04463335401397811,
        0.022525598898319482,
        -0.07307385558262085,
        -0.05562586033058768,
        -0.04754854545306972,
        -0.05678076252981647,
        0.031009875115830685,
        -0.026765389406760334,
        0.04532497632994323,
        -0.047580146380947264,
        -0.006725195593237518,
        -0.02114008988122803,
        0.0792513367152885,
        -0.07606245084086295,
        0.04749496835454914,
        -0.05058429707649023,
        -0.03359870058308684,
        -0.012935682358606926,
        0.038194216814717144,
        0.04593279161994704,
        -0.03890043102991229,
        -0.02343135586542241,
        0.02014328396730143,
        0.0015588430181211754,
        0.04522252046607503,
        -0.0795093852047355,
        -0.04051966106552525,
        -0.019010233826926425,
        -0.026712466588164965,
        -0.01623878709371765,
        0.07899139919705023,
        -0.040087949550443355,
        0.06608577563729459,
        -0.019268432701265395,
        -0.041781880720174726,
        -0.02658572077242933,
        0.060345787115264476,
        0.05353258903921576,
        0.0007739990708659633,
        0.0687525899628072,
        0.020996269855710098,
        0.03680172510484657,
        -0.0656981262118292,
        0.013417362025560098,
        0.07744793063525965,
        0.019203385418142968,
        -0.029501175600999414,
        0.011550069363377616,
        0.005853706617508225,
        -0.06435996575817227,
        0.0224892711937736,
        0.007002085842847686,
        -0.056397525280179696,
        0.06063704204157214,
        -0.03334384128256928,
        -0.05676852494958115,
        -0.06489029727176933,
        -0.07017401609900242,
        -0.032240396620137626,
        0.01193138908511382,
        0.07382962277378502,
        -0.07145766110982466,
        -0.06321812845466215,
        0.022142834074193,
        0.02507825523239647,
        -0.07248970604432363,
        0.04564586239081561,
        0.014066562079792594,
        0.04661189398731061,
        0.06267972049261825,
        -0.03162421000370122,
        0.07655044355236354,
        0.04291146975568284,
        0.010113902089367188,
        0.034846862679943316,
        -0.027724191932060327,
        -0.017281416855277343,
        -0.06995422265856632,
        -0.0794150646726583,
        -0.002357063732670181,
        0.020541321728421574,
        -0.021429596214778766,
        -0.06656178913657654,
        0.06289211782240767,
        0.07435308335888094,
        0.024574793517728177,
        -0.005714486909494346,
        -0.0416297670087697,
        0.025866575195577085,
        0.028097929417621514,
        -0.06867025355234997,
        0.06678771982880316,
        0.005951563365424184,
        -0.038743756108110025,
        -0.017778497982501945,
        0.07240114428947111,
        -0.06713433550621854,
        -0.05135241157079755,
        0.06200391080508663,
        0.010018995565325747,
        0.004712327077232889,
        0.03300803426927881,
        -0.04857570927221406,
        -0.05972690316410663,
        0.04865774362115907,
        0.07067470833698425,
        0.017365049831417845,
        0.06111551258114184,
        -0.06670511669890523,
        -0.07476616983000206,
        -0.037176395273358274,
        -0.047037885740851895,
        0.028079363125668236,
        0.05200089752997297,
        0.06137294318955605,
        -0.0013820651629441183,
        0.06812541904153216,
        -0.01189513974295596,
        0.07006034323894617,
        0.055274722507520885,
        -0.0769114900702478,
        0.056779125206553954,
        -0.067307164753825,
        0.03563560028690417,
        0.023473699905877804,
        0.005621787535265224,
        -0.04854519667983207,
        -0.029315470900540347,
        0.0502364432833767,
        -0.010416977521982881,
        0.03771554592859601,
        -0.07063279516637982,
        0.009936425938332882,
        -0.035162570994906835,
        -0.017058860122537975,
        -0.035773392645154035,
        -0.02368041859242289,
        -0.04950235451719638,
        0.03343129355679075,
        0.05268126062851253,
        -0.005213136705069593,
        0.053862006080154956,
        0.012349304744043568,
        -0.044017344665852685,
        -0.0786077953183096,
        -0.06700529554133347,
        0.044678260375102974,
        0.04465989261685224,
        -0.05082430168336792,
        0.02075303775559073,
        -0.06008972088066161,
        0.06641278231457201,
        -0.04935729245478027,
        -0.009464210654110322,
        -0.005291980152767509,
        0.0044814051038167685,
        -0.0797941644153068,
        -0.0006003175008004735,
        0.028388652451189295,
        0.04370909645184813,
        0.07184124218820007,
        0.05862874847287572,
        -0.0021284032626513183,
        -0.02191918444842656,
        -0.03196805396391569,
        0.049112255006287436,
        -0.0602670527126459,
        -0.048848101321921945,
        0.06068727380313463,
        -0.06548869261109216,
        -0.07369810249959974,
        0.05339870119093865,
        -0.04529614548749192,
        -0.061773255153760157,
        -0.050588141364628664,
        0.035568692903710314,
        0.016294042041736456,
        -0.041939827445889116,
        0.03553252512458342,
        0.044276361005893605,
        0.01714461102533721,
        -0.06594810523633507,
        -0.001474792240707276,
        -0.07429987933803461,
        -0.07938048292617926,
        -0.021943611531836674,
        0.022615548997156093,
        -0.02635709975074626,
        -0.019412932615973634,
        -0.07285450897472473,
        0.000873151886523163,
        -0.018317995098910675,
        0.03526695522412293,
        -0.016646980818043264,
        -0.02010172590413821,
        0.004354808922651485,
        0.04636809159514721,
        -0.005653593548083077,
        0.045899702083703725,
        -0.024317926242026666,
        0.06230072148830679,
        0.08104793658788009,
        0.03645867459333428,
        -0.05411397431384713,
        -0.024322764089246433,
        0.04739818107660715,
        -0.050518116517251896,
        -0.06658739202650779,
        0.0023042395554711548,
        -0.04483297400273505,
        0.003982382271948068,
        0.07605985509073737,
        -0.01355860035928333,
        -0.026746765969972462,
        0.03681347438372953,
        0.02996728415023335,
        -0.06755491025149626,
        0.041455660068271186,
        0.07727875658565181,
        0.0451118872117417,
        0.07506529687760527,
        0.009247650891765477,
        0.06439917920582855,
        -0.00961600364577192,
        0.02394084841472928,
        0.04701792076497713,
        0.031577266109388394,
        -0.02873255019123855,
        0.05249671659871047,
        0.052927030955293275,
        0.0417575662731416,
        -0.003930753154522917,
        0.006214647666101511,
        -0.06302598998741005,
        0.07471936641877949,
        0.03588537597542543,
        -0.03515227561987555,
        0.028965685204169617,
        0.005114676770609214,
        0.005334970557291055,
        0.025046580383183373,
        -0.0650193763601234,
        0.04634463091207536,
        -0.011271190003141737,
        -0.024423656666837282,
        -0.0017198558753786924,
        0.030822593627069017,
        0.026814452533765923,
        0.04358464723409507,
        0.03599738293097492,
        0.0061107207352142645,
        -0.020295680801501258,
        0.06269446228005057,
        -0.013556374001282304,
        0.05115160988797246,
        0.0007517482821848137,
        0.03661878684999016,
        0.011250728394552795,
        0.015063005304091048,
        -0.045399029329376527,
        0.012041608067356338,
        0.034677226849166964,
        0.00720584391118205,
        0.00047239930153300524,
        -0.05417774576794219,
        0.0392374505231826,
        -0.04542664743961664,
        -0.03735169216873513,
        0.008374953937662119,
        -0.006946126625080096,
        0.0438092273371936,
        -0.017249863559213027,
        0.05689621869260866,
        0.022255837471696183,
        0.04862437608647041,
        0.07748266725891076,
        -0.0609491362976778,
        0.055011527975581925,
        0.07644591889395003,
        0.024329553331729453,
        -0.07378190815843272,
        -0.005782381049852445,
        0.07212478911069936,
        -0.06982259469756497,
        -0.006773358525375778,
        -0.06518366081452318,
        0.003568359612094729,
        0.07239890141360356,
        0.01225185481005081,
        -0.036028364978401686,
        0.0453436424844508,
        -0.06409953717081641,
        0.024770239796668758,
        -0.008897506173667608,
        0.07353247879765581,
        -0.054172187116899875,
        0.014827679542349106,
        -0.0038424458844340814,
        0.0810914888895028,
        -0.07357488445089852,
        -0.025592021425078895,
        -0.07543122523205985,
        0.07426373040963638,
        0.046431438472606834,
        -0.037691824295530446,
        -0.008511175617964772,
        -0.04181866387396486,
        -0.030588088126452945,
        0.011319657948652154,
        0.038635890231713654,
        -0.0590754410923152,
        0.05097406172216451,
        -0.047019468247353806,
        0.013150001286660634,
        -0.041353817918378444,
        0.04428960550000982,
        0.03260832127890427,
        0.06757088072634998,
        -0.066813510310848,
        0.0037495428909939676,
        -0.021529935893385102,
        -0.02846157637415466,
        -0.041500787132059805,
        -0.06782064283125443,
        0.04447687493540123,
        -0.04000057217894183,
        -0.04450917669592717,
        0.02378744152701777,
        0.07450462773356767,
        -0.03207560795736929,
        0.07790079765217578,
        -0.012321456800692174,
        0.06070753363952655,
        -0.0077982432841933735,
        0.06011399333120357,
        0.04228246371892083,
        -0.0751201580618523,
        -0.027416220962078762,
        -0.0022698871351284067,
        0.04437240836992412,
        -0.06727545119011495,
        -0.04719360029221422,
        0.07824704350347475,
        0.06282545422627528,
        -0.04286857460023483,
        -0.00602222540642168,
        0.013739657741574499,
        -0.019305829099658223,
        0.04993709261804255,
        0.007814407184981179,
        0.021608461785351626,
        -0.040670119864566485,
        0.06808914927198503,
        -0.014014848531837487,
        0.044172666702041785,
        -0.012256852415645142,
        -0.01996493709274983,
        0.025424406766597907,
        0.044829481562086965,
        -0.028973066640971795,
        -0.04917377157426832,
        -0.04700330927087918,
        -0.07703637085345964,
        -0.0191874454855055,
        0.057038824986278575,
        0.03161444052136343,
        0.024057773976289318,
        -0.027763381226054096,
        0.04510291017528728,
        0.07478124934710001,
        0.06459795006639726,
        -0.07933834818694667,
        -0.05600507344061313,
        0.04099050487830139,
        0.022867143623012717,
        -0.044008017495893725,
        -0.02641417101613419,
        -0.031917149651883935,
        -0.0028185435600348308,
        -0.06939999361752375,
        -0.007850507150038141,
        0.07482587875548452,
        0.03541839558022736,
        -0.04750311351541654,
        -0.06314214386717205,
        0.020054083340270742,
        0.055694476097163825,
        -0.034157452101570146,
        -0.024171638526704377,
        0.06885951735239623,
        0.05432540355715393,
        0.005449910611548536,
        0.06837963313757187,
        -0.0015267964291612868,
        -0.008085280857438579,
        -0.045299910631292996,
        -0.05702309335579772,
        0.010254475760533704,
        0.07987904312496319,
        0.020232421443097143,
        -0.06276489836862995,
        -0.07896736998220899,
        0.03585386676486439,
        -0.048100979306548705,
        -0.018340128278776402,
        -0.04430287011913802,
        -0.004030724728182569,
        -0.0045368024872435575,
        0.04720613956056269,
        0.033066864128279416,
        0.0063006964491240935,
        -0.003436651614408273,
        -0.010281470292534317,
        0.055684128560663515,
        0.02676286340348434,
        0.040712898214992785,
        0.03592554192000638,
        -0.028861393834378322,
        -0.07875596183541533,
        -0.0635954687474803,
        0.017691830584523824,
        -0.05195041427419152,
        -0.0648111176111886,
        0.07002039977780786,
        0.03596822330154156,
        -0.07089748264066677,
        -0.0391367905566057,
        -0.0376315466018298,
        -0.05856402820261176,
        -0.013514682805363304,
        0.049828143842171824,
        0.02830365795682957,
        0.05763858442826278,
        0.0186898265074152,
        0.04928240787393667,
        0.05700915809454615,
        0.03377508561826241,
        -0.0465058173517886,
        0.08000337978974986,
        -0.04632451346609871,
        0.029186460767444022,
        -0.047026503003515414,
        0.05706976326245414,
        0.02444412622952985,
        0.020436509923304563,
        -0.06518706471231613,
        -0.01698934399692545,
        0.049930003830437386,
        0.05246902868159875,
        0.04266238202484557,
        0.05258326928644125,
        -0.0036267189325489,
        0.07949469452087088,
        -0.0236070544846066,
        -0.08060096109833094,
        0.0461431429514447,
        -0.01268640920667849,
        0.0072136409205111746,
        -0.06985166563045794,
        -0.06970602382214831,
        -0.07470706869093276,
        0.017884807510027342,
        0.008923857765971308,
        -0.014039674343193573,
        0.05343437195717421,
        0.02190316948770879,
        -0.04229662681367004,
        0.056026892600173184,
        0.012348285035000114,
        -0.03213871902398359,
        0.06682994909294704,
        0.04595932894985025,
        -0.0017201075810056032,
        0.025441683414964514,
        0.016240211136311633,
        -0.06523768504032881,
        0.06503599447561487,
        0.040517439800309446,
        0.07687081539856627,
        -0.010291208904769866,
        0.05865920842297703,
        -0.06347326419044716,
        -0.024616234760062118,
        0.01487796427251499,
        -0.028499086969423562,
        0.05086218058227365,
        -0.0673796055817257,
        -0.03583952874734676,
        -0.006670964440928587,
        -0.07622052262576148,
        -0.03827135837165424,
        0.01770379842535222,
        -0.012831490470341864,
        -0.028605628602832472,
        -0.006010634597192421,
        0.02390258868203457,
        -0.07410512808300773,
        -0.04969200138045801,
        -0.06004883186160703,
        -0.0038760547076338164,
        -0.04661484466252064,
        -0.018510828568431933,
        0.02011911660009638,
        0.02784084000045825,
        0.07479425136775447,
        -0.0008588708386654403,
        0.03525423763070218,
        -0.02433040055116808,
        -0.006218716755641687,
        -0.060739037863189696,
        0.012192245368771379,
        -0.04933259644105257,
        0.020365507435221128,
        0.013105195327973315,
        0.002024052350431599,
        -0.008428732055454372,
        -0.054155869001431975,
        -0.04817358243517656,
        -0.07830168864604105,
        -0.01653144487334443,
        -0.023041014222476258,
        -0.06567647724631809,
        0.020567743815519526,
        0.0020909074999622967,
        -0.05826035477501089,
        0.025641900131091702,
        -0.06039339318230595,
        -0.06849713161290735,
        0.006023391186163851,
        0.06288155851207464,
        -0.05240782750882583,
        0.022638800992158037,
        0.02247936790475613,
        -0.07271188987818163,
        0.05090353802388581,
        0.023778218463247208,
        -0.033394630684849456,
        0.006462200039002497,
        -0.04858217956396473,
        -0.04494016825684222,
        -0.02807228538585383,
        0.07526922334605823,
        -0.06985200870257491,
        0.042145922327629926,
        -0.04286686484855355,
        0.06848003531908387,
        0.052614098413263116,
        0.015280419933504263,
        -0.04781120989730815,
        0.08044985010769609,
        -0.07107491042024452,
        0.017698602733372773,
        0.0535317652621185,
        -0.06015093665441744,
        0.07721782160063137,
        -0.008688015054698725,
        0.062092775910971176,
        0.01999942659250159,
        -0.05390111268016718,
        -0.05407999451856379,
        -0.08108318355599196,
        0.04659605263041833,
        -0.01762958440463444,
        0.022352691260109595,
        -0.05294425025183813,
        0.06593110341411187,
        0.07276639506372781,
        0.0690544223647663,
        0.018427057377368855,
        0.008311800173076714,
        -0.05722081044770935,
        -0.059220288840437355,
        0.040093779792253745,
        0.034443271083695326,
        0.06972207723647975,
        -0.006960548212755907,
        0.034634267115536396,
        0.03214479491179931,
        0.07698601612521044,
        -0.07288361499134853,
        -9.807462372612985e-06,
        -0.03181533979430323,
        -0.06234533067596644,
        -0.07755973079637518,
        -0.07907061152504036,
        -0.04131619574742555,
        -0.03328074475723295,
        -0.07368015485580084,
        0.002831575057310673,
        -0.040705420981239714,
        0.01875975933768588,
        -0.025517415619104145,
        0.06544895273314141,
        -0.0007660598119866857,
        0.03154865927419455,
        -0.04591595158847321,
        -0.03012361932324864,
        -0.030406858532798127,
        -0.007657403578709837,
        -0.016925460505072862,
        0.034239245414244626,
        0.06322980632958389,
        -0.005958860129940874,
        -0.006080199172313977,
        -0.02997320277223365,
        -0.07487462258060694,
        -0.012876835996634833,
        -0.0013203301165721493,
        -0.06029775903239284,
        -0.06486617280846445,
        -0.010797462466167598,
        -0.043964393095571465,
        0.06645972710724807,
        -0.05298091033729535,
        -0.027991487108621912,
        -0.07250693711004937,
        0.07344096443816561,
        -0.018969124539889165,
        -0.06349377053202522,
        -0.07546562182163047,
        0.03545010074801082,
        -0.050233623143575074,
        0.0214094853575892,
        0.04090571031169678,
        -0.01864269666021761,
        -0.06216312468173077,
        0.030998453859006944,
        -0.06980984593399663,
        -0.03507099315314297,
        0.0015730608540057839,
        0.07436696912565974,
        0.047745774349429615,
        0.04433570969812067,
        0.05059084787700155,
        -0.007431231487302389,
        0.03498568384421806,
        -0.00970863275737123,
        -0.00902707898712786,
        0.05114341409311368,
        0.06020325338125376,
        -0.0075889884263529855,
        -0.012027950735709711,
        0.0376589734633606,
        0.06888078523221966,
        -0.025457961047834946,
        -0.024526568233451396,
        0.04866644059570657,
        -0.0021226076208595013,
        -0.039292786226471706,
        0.027160949934624312,
        -0.05039682521548093,
        -0.046267310975504745,
        0.002469396301484031,
        -0.03862492758041631,
        0.03382108917311316,
        0.025651605804311597,
        -0.03231932331048176,
        0.006073843484287411,
        0.040417034556607695,
        -0.012298266457467358,
        -0.04080766850915525,
        -0.01940949609264784,
        0.06573967174227938,
        0.004002176559039991,
        -0.049264089669106226,
        -0.0009294928785841122,
        -0.0366632537664234,
        0.009243074489098821,
        0.023166216090912337,
        0.04785704563067919,
        -0.07043830298031833,
        0.027236006243395283,
        -0.05263908295193852,
        -0.002322572928477526,
        -0.006029169156220246,
        -0.030023905825539432,
        -0.009463130930915081,
        -0.04730839463444942,
        -0.07610616881087538,
        0.0718717022995981,
        0.031625301068637535,
        -0.0100472695604681,
        -0.054607973148610475,
        0.02536325894649498,
        -0.07189414598858136,
        -0.06982377486423129,
        -0.001751655645376951,
        -0.00739297732997489,
        0.05797401681994957,
        0.017571698165743915,
        0.08062213902478896,
        0.08010492995245638,
        -0.026420459942356138,
        0.04952741088235693,
        0.03759092747084909,
        -0.02225286315205211,
        -0.055726279836122654,
        0.013857641435606805,
        -0.07340082118322946,
        -0.018757045250471352,
        0.07460601523283233,
        0.008724145839591857,
        0.03335561342582344,
        0.01736923165403058,
        0.05522297604002635,
        0.007069238113311921,
        -0.035418222313608784,
        0.03552543246083492,
        -0.008819647261135155,
        -0.004706150441826679,
        -0.0709537118684091,
        0.022004484130221255,
        -0.03613146157889061
      ],
      [
        0.014342253885798698,
        0.058754760019124885,
        0.07553027009152749,
        -0.07628038472198627,
        0.06659904593476731,
        0.01746543151948668,
        -0.08027421154815195,
        -0.017104842915597065,
        0.02735634227915676,
        0.050615238868381957,
        -0.01832761242551645,
        0.011014336108170333,
        0.029448313178850757,
        -0.02944642016544801,
        0.020882004181808425,
        0.03491476058124181,
        -0.02858223878229512,
        -0.03153948497013234,
        -0.06583219499497031,
        -0.06412924832306147,
        0.019638147487135993,
        0.0804061400943254,
        -0.012190118410789041,
        -0.03560820123965668,
        -0.06840339026788865,
        -0.02575267469320265,
        0.029109285130840004,
        0.001893484966418224,
        0.021413906306719188,
        0.025155774728346472,
        -0.00906388906349205,
        0.033266580934697226,
        -0.0018491313505686752,
        -0.023810559349216255,
        -0.04453087390651622,
        -0.012140510326871995,
        0.02400274142898616,
        0.033992174095899705,
        -0.030760305776539675,
        -0.06765352887612779,
        -0.0021393373038998686,
        0.0533948008233632,
        0.05616085947612168,
        -0.018709362294348192,
        0.037355656956184494,
        0.018492797511599005,
        -0.06462450690905981,
        -0.059384850594292084,
        -0.013489106322871425,
        -0.0472573274107663,
        -0.07218990841395684,
        -0.0689737223150407,
        0.07394724773698402,
        0.01688623039307835,
        -0.01855479657447462,
        0.06481413542371264,
        -0.06092007695162748,
        0.08070183330040687,
        -0.0749925719463126,
        -0.030289757169002368,
        -0.012322133666963025,
        0.02767192163357758,
        -0.04423879531409031,
        -0.0202373779686396,
        -0.0005542106444648143,
        0.005099157772961521,
        -0.020138849336940913,
        0.055906292425440846,
        -0.07716303115126855,
        0.07950288809811684,
        0.03352221891695363,
        0.036549911577421504,
        0.07970054169431212,
        -0.02484886608131171,
        0.058672616875268646,
        0.044186631273466254,
        0.03199047853505524,
        0.029645388460638647,
        0.047364433682926976,
        -0.058653725514573304,
        0.025686930630073185,
        -0.06474578941965217,
        0.03654516691965021,
        -0.0070450529924295235,
        0.06561413983809453,
        -0.07986050511474585,
        -0.06493867821482911,
        0.04389883834301561,
        -0.07536668730688532,
        0.015988452574027645,
        -0.04996129621119387,
        -0.018148577544591635,
        -0.025244696476537196,
        -0.07616171487692072,
        -0.002542425667093548,
        -0.07144273834527239,
        -0.003869948291797251,
        0.06625529238546715,
        -0.020919410864934755,
        0.008080212900961142,
        0.017390113744046726,
        0.027586455449654115,
        -0.0790167247983391,
        0.024796343873305884,
        0.022730381212733325,
        0.04873079148262549,
        -0.0003393630221270455,
        -0.07471345657009185,
        -0.07799049446751433,
        0.04696783466860524,
        -0.006232977863480552,
        -0.04275383487740817,
        -0.018062204880371913,
        0.071280017500849,
        0.07975654175216318,
        0.0754407060389074,
        -0.06867235131186228,
        0.025798961813455548,
        0.05690294944867491,
        -0.07829706021948828,
        0.07631489456016599,
        0.03745658632559343,
        -0.04333221350868068,
        -0.049061453905250636,
        0.031567637606115015,
        0.008434598518926709,
        0.07500708747904805,
        -0.051561517749328586,
        0.029367533560669595,
        0.04599013643667124,
        0.06217727674708737,
        0.06285513587102118,
        0.0802197443304028,
        0.01572358628283256,
        -0.03511644857926129,
        0.08042094093708871,
        0.01279630789757287,
        -0.03996811020053147,
        0.022233508513977554,
        -0.014139659899440257,
        0.03981138584991133,
        -0.06344711729534849,
        -0.054700328120440816,
        0.03206699960125861,
        -0.05052018710507185,
        0.03619886335593264,
        -0.007374098258243686,
        0.07755061951274947,
        0.03585523744286834,
        0.03778340409845818,
        -0.04417860037798158,
        -0.0635501467651272,
        -0.019584269872172017,
        0.06801482012535162,
        -0.010702480706080472,
        0.026511465783394278,
        0.007964676983048286,
        -0.013203975586017005,
        0.014244060222001434,
        0.07549420853490019,
        0.06111995597061365,
        -0.01586538487518309,
        -0.04773298924342031,
        0.01568675104068816,
        -0.05424622782515442,
        -0.008811390285802453,
        0.06717585966803949,
        -0.043040663428143465,
        0.014628808190465914,
        -0.06135677658157086,
        -0.05489734633837637,
        0.07310375476318967,
        0.07481378876779443,
        -0.013560381508921776,
        -0.06965835932458633,
        -0.0758048441365319,
        0.008998079015830135,
        -0.025029691739578058,
        -0.01583705776385254,
        0.05994190708312047,
        0.03753942380330236,
        -0.0018961180956430929,
        0.015599020341518777,
        -0.0029346166038610733,
        0.008828931716315616,
        -0.025362653719735048,
        -0.02591265324212956,
        0.07008589597747283,
        -0.028562952199922415,
        0.0032026706143528094,
        -0.045659204276895085,
        -0.057074922582226614,
        -0.0023733505668473293,
        0.01080307395245611,
        -0.0651032478644232,
        -0.03935858410767801,
        -0.03982773500437304,
        -0.07611657966614889,
        -0.06376189777924311,
        -0.002455553736640234,
        0.025956590028938215,
        -0.012635124483644178,
        0.00481273944526435,
